-1.736299303644301 -0.29382725901701146 -4.048577782396767 -1.5970857569486558 -2.847856162383419 3.955938617686249 -0.8714475034429839 -0.7183615450069846 1.576567397266049 -2.034440875001752 1.6581603331418215 1.1778973092595344 -0.788640214930669 -0.3109930932255156 -0.3998428662750724 0.7551606449654499 -0.0018621603648755417 -1.1566711425722689 -1.0545237449679765 -0.3838974189341808 -0.8402314903337071 0.33376788741383734 -0.7255695883317105 -0.8122225361257921 0.16847840826972207 -1.6108722554000623 -1.058088784178172 0.7157030954682404 -0.9081073976441597 -0.0035894064838793826 -0.03229098627204592 2.0340770919220956 -1.774933724880742 0.7785116461201407 -1.6373729167319835 0.6837677142508353 0.09520130580229454 1.763214963710349 -1.2879001798116494 1.0750672155808956 0.1491629404533382 1.2133906676122617 -1.9032562473486776 -1.6096736525256499 -0.03876663818837682 0.35613722614012633 2.026856324188512 -1.6273676659124354 -1.8754729651193118 -0.3988930341569418 -1.7026455855580944 0.7850602426427283 0.39761966900854573 1.0323200707721014 -1.1540263768863983 0.9691392086749556 0.8148604177574045 0.7744152182711012 0.976899803681111 -1.3594401136058902 0.596660528688005 -1.010980639564386 0.4487826937572217 0.5357701995573031 0.7078368349356549 -1.5061897446156767 1.5300326776982103 0.7251098027746464 1.3674884208058184 1.2403264486852277 -1.9027368152849036 -0.9423200511438504 -1.2544882825633747 0.849460729887089 -0.051319388479019776 1.0015483356775894 1.421896856244117 -0.49929012691001007 0.46116643087799153 0.1363684617993758 -1.4191326659459524 -1.7554642391665343 0.5038875639821654 0.9564187824198901 -2.3768254645366227 1.4030048052571809 -0.9802337258616904 -2.0800057089336828 -0.8924937859853578 -1.3000647994509913 -1.2485582167122247 1.4131858203117558 -5.909617060873376 -2.7056965854920585 -2.924004778195692 5.45025550293066 1.2332495455510533 -0.11800773235922002 2.733273316190601 -1.2990162661016098 